export default function predict(input) {
  var var0;
  if (input[0] > 4353.000000000001) {
    if (input[0] > 4409.000000000001) {
      if (input[0] > 4961.500000000001) {
        var0 = 0.5194168532696187;
      } else {
        if (input[5] > 17.500000000000004) {
          var0 = 0.5626521161550342;
        } else {
          var0 = 0.542172090558185;
        }
      }
    } else {
      var0 = 0.512925628317142;
    }
  } else {
    if (input[0] > 348.00000000000006) {
      if (input[0] > 762.0000000000001) {
        if (input[0] > 4106.500000000001) {
          if (input[0] > 4213.000000000001) {
            if (input[0] > 4283.000000000001) {
              if (input[5] > 17.500000000000004) {
                var0 = 0.6208629838336339;
              } else {
                var0 = 0.5823118385442073;
              }
            } else {
              if (input[5] > 11.500000000000002) {
                if (input[5] > 14.500000000000002) {
                  var0 = 0.5508123215183539;
                } else {
                  var0 = 0.5847779477552211;
                }
              } else {
                var0 = 0.5309045972015572;
              }
            }
          } else {
            if (input[5] > 17.500000000000004) {
              if (input[5] > 18.500000000000004) {
                if (input[5] > 22.500000000000004) {
                  var0 = 0.652185861763672;
                } else {
                  var0 = 0.7006889957139147;
                }
              } else {
                var0 = 0.7594303579272172;
              }
            } else {
              if (input[5] > 4.500000000000001) {
                var0 = 0.6814540802975139;
              } else {
                var0 = 0.6603461585025345;
              }
            }
          }
        } else {
          if (input[5] > 6.500000000000001) {
            if (input[0] > 2554.0000000000005) {
              var0 = 0.5426791028516134;
            } else {
              if (input[5] > 15.500000000000002) {
                if (input[5] > 21.500000000000004) {
                  var0 = 0.5444311593874303;
                } else {
                  var0 = 0.5767537539743962;
                }
              } else {
                var0 = 0.547723498785526;
              }
            }
          } else {
            var0 = 0.526674130685589;
          }
        }
      } else {
        if (input[5] > 6.500000000000001) {
          if (input[3] > 6.500000000000001) {
            if (input[3] > 8.500000000000002) {
              var0 = 0.6707931286663953;
            } else {
              if (input[5] > 18.500000000000004) {
                var0 = 0.6538417141081174;
              } else {
                var0 = 0.6156455863046182;
              }
            }
          } else {
            if (input[5] > 19.500000000000004) {
              var0 = 0.699564858692205;
            } else {
              if (input[1] > 10.949999809265138) {
                var0 = 0.6525707919232863;
              } else {
                if (input[4] > 8.500000000000002) {
                  if (input[5] > 9.500000000000002) {
                    var0 = 0.7186620043774095;
                  } else {
                    var0 = 0.6665062664133167;
                  }
                } else {
                  var0 = 0.6508649198633855;
                }
              }
            }
          }
        } else {
          var0 = 0.6032485511993082;
        }
      }
    } else {
      if (input[5] > 20.500000000000004) {
        var0 = 0.5542291953369001;
      } else {
        if (input[5] > 1.5000000000000002) {
          var0 = 0.5227419423089287;
        } else {
          var0 = 0.5552739296409057;
        }
      }
    }
  }
  var var1;
  if (input[0] > 4353.000000000001) {
    if (input[0] > 4409.000000000001) {
      if (input[0] > 4961.500000000001) {
        var1 = -0.03754269344514688;
      } else {
        if (input[5] > 17.500000000000004) {
          var1 = 0.001369042788794295;
        } else {
          var1 = -0.017062980469883;
        }
      }
    } else {
      var1 = -0.04338479637345736;
    }
  } else {
    if (input[0] > 348.00000000000006) {
      if (input[0] > 762.0000000000001) {
        if (input[0] > 4106.500000000001) {
          if (input[0] > 4213.000000000001) {
            if (input[0] > 4283.000000000001) {
              if (input[5] > 17.500000000000004) {
                var1 = 0.053758824246856754;
              } else {
                var1 = 0.019062792718505153;
              }
            } else {
              if (input[5] > 11.500000000000002) {
                if (input[5] > 14.500000000000002) {
                  var1 = -0.009286772589156679;
                } else {
                  var1 = 0.021282290735445887;
                }
              } else {
                var1 = -0.027203723844111363;
              }
            }
          } else {
            if (input[5] > 17.500000000000004) {
              if (input[5] > 18.500000000000004) {
                if (input[5] > 22.500000000000004) {
                  var1 = 0.08194941282272339;
                } else {
                  var1 = 0.12560223736759527;
                }
              } else {
                var1 = 0.17846945979717105;
              }
            } else {
              if (input[5] > 4.500000000000001) {
                if (input[1] > 17.66499996185303) {
                  var1 = 0.09738347311970762;
                } else {
                  var1 = 0.11811707088905099;
                }
              } else {
                var1 = 0.08929368218572306;
              }
            }
          }
        } else {
          if (input[5] > 6.500000000000001) {
            var1 = -0.008208747140720866;
          } else {
            var1 = -0.031011143824580215;
          }
        }
      } else {
        if (input[5] > 6.500000000000001) {
          if (input[3] > 6.500000000000001) {
            if (input[3] > 8.500000000000002) {
              var1 = 0.09869595501291496;
            } else {
              if (input[5] > 18.500000000000004) {
                var1 = 0.08343968068104272;
              } else {
                var1 = 0.049063167198032255;
              }
            }
          } else {
            if (input[5] > 19.500000000000004) {
              if (input[3] > 4.500000000000001) {
                var1 = 0.10893617001293743;
              } else {
                var1 = 0.14711749769323243;
              }
            } else {
              if (input[1] > 11.154999732971193) {
                var1 = 0.08201471466992974;
              } else {
                if (input[4] > 8.500000000000002) {
                  if (input[4] > 19.500000000000004) {
                    var1 = 0.09846122663882044;
                  } else {
                    if (input[3] > 4.500000000000001) {
                      var1 = 0.07572504526166164;
                    } else {
                      var1 = 0.1654547121964003;
                    }
                  }
                } else {
                  var1 = 0.08088577702996277;
                }
              }
            }
          }
        } else {
          var1 = 0.037905835644663155;
        }
      }
    } else {
      if (input[5] > 20.500000000000004) {
        var1 = -0.006211586142131031;
      } else {
        if (input[5] > 2.5000000000000004) {
          var1 = -0.03533312451685322;
        } else {
          var1 = -0.010395130765221703;
        }
      }
    }
  }
  var var2;
  if (input[0] > 4353.000000000001) {
    if (input[0] > 4409.000000000001) {
      if (input[0] > 4961.500000000001) {
        var2 = -0.033788424264738964;
      } else {
        if (input[5] > 17.500000000000004) {
          var2 = 0.0012321382323667793;
        } else {
          var2 = -0.015356682239321863;
        }
      }
    } else {
      var2 = -0.03904631668591181;
    }
  } else {
    if (input[0] > 348.00000000000006) {
      if (input[0] > 762.0000000000001) {
        if (input[0] > 4106.500000000001) {
          if (input[0] > 4213.000000000001) {
            if (input[0] > 4283.000000000001) {
              if (input[5] > 17.500000000000004) {
                var2 = 0.048382940116904895;
              } else {
                var2 = 0.01715651368863556;
              }
            } else {
              if (input[5] > 11.500000000000002) {
                if (input[5] > 14.500000000000002) {
                  if (input[3] > 7.500000000000001) {
                    var2 = 0.006283615630182787;
                  } else {
                    var2 = -0.01774210009893233;
                  }
                } else {
                  var2 = 0.01915406193432127;
                }
              } else {
                var2 = -0.02448335156259682;
              }
            }
          } else {
            if (input[5] > 17.500000000000004) {
              if (input[5] > 20.500000000000004) {
                var2 = 0.09423486872486049;
              } else {
                var2 = 0.13592841346791493;
              }
            } else {
              var2 = 0.0926799572452698;
            }
          }
        } else {
          if (input[5] > 6.500000000000001) {
            if (input[0] > 2554.0000000000005) {
              var2 = -0.01578579420486653;
            } else {
              var2 = -0.0026850362948187797;
            }
          } else {
            var2 = -0.027910028978286046;
          }
        }
      } else {
        if (input[5] > 6.500000000000001) {
          if (input[3] > 6.500000000000001) {
            if (input[3] > 8.500000000000002) {
              if (input[4] > 5.500000000000001) {
                var2 = 0.07322648867081466;
              } else {
                var2 = 0.12158609339346489;
              }
            } else {
              if (input[5] > 18.500000000000004) {
                var2 = 0.07509571349402087;
              } else {
                var2 = 0.04415685008741857;
              }
            }
          } else {
            if (input[5] > 19.500000000000004) {
              if (input[5] > 22.500000000000004) {
                var2 = 0.08087910489228212;
              } else {
                var2 = 0.12273494319524617;
              }
            } else {
              if (input[1] > 11.154999732971193) {
                var2 = 0.07381324343160929;
              } else {
                if (input[4] > 10.500000000000002) {
                  if (input[4] > 19.500000000000004) {
                    var2 = 0.08861510758598645;
                  } else {
                    if (input[3] > 4.500000000000001) {
                      var2 = 0.06642900183796883;
                    } else {
                      var2 = 0.15882614759298475;
                    }
                  }
                } else {
                  var2 = 0.07472802660404108;
                }
              }
            }
          }
        } else {
          var2 = 0.03411525109247573;
        }
      }
    } else {
      if (input[5] > 21.500000000000004) {
        var2 = -0.0006268831821749124;
      } else {
        if (input[5] > 1.5000000000000002) {
          var2 = -0.030448884894975783;
        } else {
          var2 = -0.0042318121487731385;
        }
      }
    }
  }
  var var3;
  if (input[0] > 4353.000000000001) {
    if (input[0] > 4409.000000000001) {
      if (input[0] > 4961.500000000001) {
        var3 = -0.030409582145764988;
      } else {
        if (input[5] > 17.500000000000004) {
          var3 = 0.0011089242315307343;
        } else {
          var3 = -0.013821013677822198;
        }
      }
    } else {
      var3 = -0.035141684957785926;
    }
  } else {
    if (input[0] > 348.00000000000006) {
      if (input[0] > 762.0000000000001) {
        if (input[0] > 4106.500000000001) {
          if (input[0] > 4213.000000000001) {
            if (input[0] > 4283.000000000001) {
              if (input[5] > 18.500000000000004) {
                var3 = 0.04652016363026579;
              } else {
                var3 = 0.01620269044195514;
              }
            } else {
              if (input[5] > 10.500000000000002) {
                if (input[3] > 7.500000000000001) {
                  var3 = 0.009904881909607463;
                } else {
                  var3 = -0.01034037287432982;
                }
              } else {
                var3 = -0.022962748584161394;
              }
            }
          } else {
            if (input[5] > 4.500000000000001) {
              if (input[1] > 16.800000190734867) {
                var3 = 0.08618714915972223;
              } else {
                var3 = 0.10168113208198415;
              }
            } else {
              var3 = 0.07109631725924193;
            }
          }
        } else {
          if (input[5] > 6.500000000000001) {
            if (input[5] > 17.500000000000004) {
              if (input[0] > 2554.0000000000005) {
                var3 = -0.013824348284718692;
              } else {
                if (input[5] > 21.500000000000004) {
                  var3 = -0.013940440064068249;
                } else {
                  var3 = 0.022597241795930048;
                }
              }
            } else {
              var3 = -0.01105432435199669;
            }
          } else {
            var3 = -0.025119026648566585;
          }
        }
      } else {
        if (input[5] > 6.500000000000001) {
          if (input[3] > 4.500000000000001) {
            if (input[5] > 19.500000000000004) {
              if (input[5] > 22.500000000000004) {
                var3 = 0.052422354748472566;
              } else {
                var3 = 0.09075828168911171;
              }
            } else {
              if (input[3] > 6.500000000000001) {
                if (input[3] > 8.500000000000002) {
                  var3 = 0.07386142070710273;
                } else {
                  var3 = 0.04109289208256658;
                }
              } else {
                if (input[4] > 18.500000000000004) {
                  var3 = 0.0880274187896379;
                } else {
                  var3 = 0.052164232420312685;
                }
              }
            }
          } else {
            if (input[3] > 3.5000000000000004) {
              if (input[4] > 10.500000000000002) {
                if (input[4] > 22.500000000000004) {
                  var3 = 0.09023212192656961;
                } else {
                  var3 = 0.1461772661446266;
                }
              } else {
                var3 = 0.06928648978549366;
              }
            } else {
              var3 = 0.05326903225473043;
            }
          }
        } else {
          var3 = 0.030703726076553098;
        }
      }
    } else {
      if (input[5] > 20.500000000000004) {
        var3 = -0.004583375558877985;
      } else {
        if (input[5] > 2.5000000000000004) {
          var3 = -0.02875492349593662;
        } else {
          var3 = -0.008061367025679262;
        }
      }
    }
  }
  var var4;
  if (input[0] > 4353.000000000001) {
    if (input[0] > 4409.000000000001) {
      if (input[0] > 4961.500000000001) {
        var4 = -0.027368623941197136;
      } else {
        if (input[5] > 7.500000000000001) {
          var4 = -0.004837345378033232;
        } else {
          var4 = -0.017407027679099168;
        }
      }
    } else {
      var4 = -0.03162751664403143;
    }
  } else {
    if (input[0] > 348.00000000000006) {
      if (input[0] > 762.0000000000001) {
        if (input[0] > 4106.500000000001) {
          if (input[0] > 4213.000000000001) {
            if (input[0] > 4283.000000000001) {
              if (input[5] > 17.500000000000004) {
                var4 = 0.039416407873925974;
              } else {
                var4 = 0.013820593005954944;
              }
            } else {
              if (input[5] > 11.500000000000002) {
                if (input[5] > 15.500000000000002) {
                  var4 = -0.008819462585752589;
                } else {
                  var4 = 0.014207092157393032;
                }
              } else {
                var4 = -0.019915231824327754;
              }
            }
          } else {
            if (input[5] > 17.500000000000004) {
              if (input[5] > 18.500000000000004) {
                if (input[5] > 22.500000000000004) {
                  var4 = 0.054555387001484636;
                } else {
                  var4 = 0.09209316764407012;
                }
              } else {
                var4 = 0.13793557862835854;
              }
            } else {
              if (input[5] > 3.5000000000000004) {
                if (input[1] > 17.66499996185303) {
                  var4 = 0.0695640781406837;
                } else {
                  var4 = 0.08559869906487028;
                }
              } else {
                var4 = 0.06188100822730034;
              }
            }
          }
        } else {
          if (input[5] > 6.500000000000001) {
            var4 = -0.005984176764373925;
          } else {
            var4 = -0.022607123940137846;
          }
        }
      } else {
        if (input[5] > 6.500000000000001) {
          if (input[1] > 12.09500026702881) {
            if (input[5] > 19.500000000000004) {
              if (input[5] > 22.500000000000004) {
                var4 = 0.04882179703677028;
              } else {
                var4 = 0.08291672060360357;
              }
            } else {
              if (input[3] > 6.500000000000001) {
                if (input[3] > 8.500000000000002) {
                  var4 = 0.06644075305988775;
                } else {
                  var4 = 0.03698360248196975;
                }
              } else {
                if (input[3] > 3.5000000000000004) {
                  var4 = 0.06241091973477802;
                } else {
                  var4 = 0.021268003660193442;
                }
              }
            }
          } else {
            if (input[3] > 4.500000000000001) {
              var4 = 0.05768055364962935;
            } else {
              if (input[4] > 8.500000000000002) {
                if (input[4] > 21.500000000000004) {
                  var4 = 0.07889983064761119;
                } else {
                  var4 = 0.12882097077955093;
                }
              } else {
                var4 = 0.06316583605075721;
              }
            }
          }
        } else {
          var4 = 0.027633353664603982;
        }
      }
    } else {
      if (input[5] > 21.500000000000004) {
        var4 = -0.00010585663283652649;
      } else {
        if (input[5] > 1.5000000000000002) {
          var4 = -0.024748110425653867;
        } else {
          var4 = -0.003002493967611831;
        }
      }
    }
  }
  var var5;
  if (input[0] > 4353.000000000001) {
    if (input[0] > 4409.000000000001) {
      if (input[0] > 4961.500000000001) {
        var5 = -0.02463176138518426;
      } else {
        if (input[5] > 17.500000000000004) {
          if (input[5] > 21.500000000000004) {
            var5 = -0.01228451925344416;
          } else {
            var5 = 0.009012042262276006;
          }
        } else {
          var5 = -0.011386102853711237;
        }
      }
    } else {
      var5 = -0.02846476515564967;
    }
  } else {
    if (input[0] > 348.00000000000006) {
      if (input[0] > 762.0000000000001) {
        if (input[0] > 4106.500000000001) {
          if (input[0] > 4213.000000000001) {
            if (input[0] > 4283.000000000001) {
              if (input[5] > 19.500000000000004) {
                var5 = 0.04104002869173867;
              } else {
                var5 = 0.013740891341031784;
              }
            } else {
              if (input[5] > 10.500000000000002) {
                if (input[3] > 7.500000000000001) {
                  var5 = 0.009168301253680677;
                } else {
                  var5 = -0.009021712957432095;
                }
              } else {
                var5 = -0.018674950426210264;
              }
            }
          } else {
            if (input[5] > 17.500000000000004) {
              if (input[5] > 18.500000000000004) {
                if (input[5] > 22.500000000000004) {
                  var5 = 0.049099847475687665;
                } else {
                  var5 = 0.08288385259206801;
                }
              } else {
                var5 = 0.12414201912258499;
              }
            } else {
              var5 = 0.067272910610483;
            }
          }
        } else {
          if (input[5] > 15.500000000000002) {
            if (input[0] > 2554.0000000000005) {
              var5 = -0.012175271994930497;
            } else {
              if (input[5] > 21.500000000000004) {
                var5 = -0.011947977686043275;
              } else {
                var5 = 0.014580165560355263;
              }
            }
          } else {
            var5 = -0.01477925881901979;
          }
        }
      } else {
        if (input[5] > 6.500000000000001) {
          if (input[5] > 18.500000000000004) {
            if (input[1] > 9.06500005722046) {
              if (input[5] > 22.500000000000004) {
                var5 = 0.04175487300754472;
              } else {
                var5 = 0.07039162920116862;
              }
            } else {
              var5 = 0.11077803020488541;
            }
          } else {
            if (input[3] > 6.500000000000001) {
              var5 = 0.03703412486496056;
            } else {
              if (input[3] > 3.5000000000000004) {
                if (input[4] > 17.500000000000004) {
                  var5 = 0.07409925138824978;
                } else {
                  if (input[3] > 4.500000000000001) {
                    var5 = 0.039670654648216445;
                  } else {
                    if (input[4] > 10.500000000000002) {
                      var5 = 0.11421578875830714;
                    } else {
                      var5 = 0.04446995070736323;
                    }
                  }
                }
              } else {
                var5 = 0.028244430354162534;
              }
            }
          }
        } else {
          var5 = 0.024870017902556295;
        }
      }
    } else {
      if (input[5] > 19.500000000000004) {
        var5 = -0.0055738638911788894;
      } else {
        if (input[5] > 2.5000000000000004) {
          var5 = -0.024036742125360142;
        } else {
          var5 = -0.006232476278671972;
        }
      }
    }
  }
  var var6;
  if (input[0] > 4353.000000000001) {
    if (input[0] > 4409.000000000001) {
      if (input[0] > 4961.500000000001) {
        var6 = -0.022168584943513425;
      } else {
        if (input[5] > 7.500000000000001) {
          var6 = -0.0036967139012351103;
        } else {
          var6 = -0.014527714812312159;
        }
      }
    } else {
      var6 = -0.025618288739677343;
    }
  } else {
    if (input[0] > 348.00000000000006) {
      if (input[0] > 762.0000000000001) {
        if (input[0] > 4106.500000000001) {
          if (input[0] > 4213.000000000001) {
            if (input[0] > 4283.000000000001) {
              if (input[5] > 16.500000000000004) {
                var6 = 0.030936777770709308;
              } else {
                var6 = 0.010492746049141924;
              }
            } else {
              if (input[5] > 11.500000000000002) {
                if (input[5] > 14.500000000000002) {
                  if (input[3] > 7.500000000000001) {
                    var6 = 0.0043685874538430085;
                  } else {
                    var6 = -0.013406167840373448;
                  }
                } else {
                  var6 = 0.01617055602272765;
                }
              } else {
                var6 = -0.016200444993036415;
              }
            }
          } else {
            if (input[5] > 4.500000000000001) {
              if (input[1] > 16.175000190734867) {
                var6 = 0.06296202552009282;
              } else {
                if (input[3] > 6.500000000000001) {
                  var6 = 0.06841648869116658;
                } else {
                  if (input[4] > 16.500000000000004) {
                    var6 = 0.06784168372099149;
                  } else {
                    var6 = 0.10197628242005208;
                  }
                }
              }
            } else {
              var6 = 0.050622126294804705;
            }
          }
        } else {
          if (input[5] > 5.500000000000001) {
            if (input[5] > 17.500000000000004) {
              if (input[0] > 2554.0000000000005) {
                var6 = -0.010625968643198392;
              } else {
                if (input[5] > 21.500000000000004) {
                  var6 = -0.010753180286500286;
                } else {
                  var6 = 0.019477918258185543;
                }
              }
            } else {
              var6 = -0.008519242296461017;
            }
          } else {
            var6 = -0.0199612799388864;
          }
        }
      } else {
        if (input[5] > 6.500000000000001) {
          if (input[1] > 12.09500026702881) {
            if (input[5] > 19.500000000000004) {
              var6 = 0.060856139243945784;
            } else {
              var6 = 0.03988198066225426;
            }
          } else {
            if (input[3] > 4.500000000000001) {
              var6 = 0.04624969331183901;
            } else {
              if (input[4] > 10.500000000000002) {
                if (input[4] > 21.500000000000004) {
                  var6 = 0.0641621650921713;
                } else {
                  if (input[5] > 9.500000000000002) {
                    var6 = 0.12167166194574226;
                  } else {
                    var6 = 0.06477421852760017;
                  }
                }
              } else {
                var6 = 0.05426298626910218;
              }
            }
          }
        } else {
          var6 = 0.02238301623697947;
        }
      }
    } else {
      if (input[5] > 20.500000000000004) {
        var6 = -0.0027767283533515486;
      } else {
        if (input[5] > 1.5000000000000002) {
          var6 = -0.020652099930064408;
        } else {
          var6 = -0.0020789973600541505;
        }
      }
    }
  }
  var var7;
  if (input[0] > 4353.000000000001) {
    if (input[0] > 4409.000000000001) {
      if (input[0] > 4961.500000000001) {
        var7 = -0.019951726892916813;
      } else {
        if (input[5] > 16.500000000000004) {
          var7 = 0.0009083136295663474;
        } else {
          var7 = -0.009708154548860044;
        }
      }
    } else {
      var7 = -0.023056459593888797;
    }
  } else {
    if (input[0] > 348.00000000000006) {
      if (input[0] > 762.0000000000001) {
        if (input[0] > 4106.500000000001) {
          if (input[0] > 4213.000000000001) {
            if (input[0] > 4283.000000000001) {
              if (input[5] > 20.500000000000004) {
                if (input[5] > 22.500000000000004) {
                  var7 = 0.016299853665640556;
                } else {
                  var7 = 0.0486733772143533;
                }
              } else {
                var7 = 0.011570840532047969;
              }
            } else {
              if (input[5] > 11.500000000000002) {
                if (input[5] > 15.500000000000002) {
                  var7 = -0.007097410273938618;
                } else {
                  var7 = 0.011911817360947437;
                }
              } else {
                var7 = -0.01458040054117865;
              }
            }
          } else {
            if (input[5] > 17.500000000000004) {
              if (input[5] > 20.500000000000004) {
                var7 = 0.05281082382885695;
              } else {
                if (input[1] > 16.175000190734867) {
                  if (input[5] > 18.500000000000004) {
                    var7 = 0.060888230516151956;
                  } else {
                    var7 = 0.09753843522694422;
                  }
                } else {
                  var7 = 0.11073351889724532;
                }
              }
            } else {
              if (input[4] > 17.500000000000004) {
                var7 = 0.04691405069024321;
              } else {
                if (input[3] > 6.500000000000001) {
                  var7 = 0.054724424191630185;
                } else {
                  if (input[4] > 4.500000000000001) {
                    var7 = 0.08643541220267109;
                  } else {
                    var7 = 0.04002076309492312;
                  }
                }
              }
            }
          }
        } else {
          if (input[5] > 6.500000000000001) {
            var7 = -0.00413598794454964;
          } else {
            var7 = -0.017029817050601054;
          }
        }
      } else {
        if (input[5] > 6.500000000000001) {
          if (input[3] > 6.500000000000001) {
            if (input[3] > 8.500000000000002) {
              if (input[4] > 5.500000000000001) {
                var7 = 0.04284077267650338;
              } else {
                var7 = 0.08579599719300557;
              }
            } else {
              var7 = 0.02933581153668624;
            }
          } else {
            if (input[5] > 19.500000000000004) {
              if (input[5] > 22.500000000000004) {
                var7 = 0.046035165652038385;
              } else {
                if (input[3] > 4.500000000000001) {
                  var7 = 0.06521170701817575;
                } else {
                  var7 = 0.09769221246651896;
                }
              }
            } else {
              var7 = 0.04767561037863147;
            }
          }
        } else {
          var7 = 0.020144714666910177;
        }
      }
    } else {
      if (input[5] > 21.500000000000004) {
        var7 = 0.0007397886245403576;
      } else {
        if (input[5] > 0.000000000000000000000000000000000010000000180025095) {
          var7 = -0.01770692147237979;
        } else {
          var7 = 0.005061240759925638;
        }
      }
    }
  }
  var var8;
  if (input[0] > 4353.000000000001) {
    if (input[0] > 4409.000000000001) {
      if (input[0] > 4961.500000000001) {
        var8 = -0.017956554209015096;
      } else {
        if (input[5] > 6.500000000000001) {
          var8 = -0.0030862531213426713;
        } else {
          var8 = -0.012748130295227708;
        }
      }
    } else {
      var8 = -0.020750813365956744;
    }
  } else {
    if (input[0] > 348.00000000000006) {
      if (input[0] > 762.0000000000001) {
        if (input[0] > 4106.500000000001) {
          if (input[0] > 4213.000000000001) {
            if (input[0] > 4283.000000000001) {
              if (input[5] > 18.500000000000004) {
                var8 = 0.02860392586383008;
              } else {
                var8 = 0.009268927865913261;
              }
            } else {
              if (input[1] > 16.744999885559086) {
                if (input[3] > 7.500000000000001) {
                  var8 = 0.007984390210692385;
                } else {
                  var8 = -0.008304555692487512;
                }
              } else {
                var8 = -0.013048550950665231;
              }
            }
          } else {
            if (input[5] > 4.500000000000001) {
              if (input[1] > 16.175000190734867) {
                var8 = 0.0509934392396627;
              } else {
                var8 = 0.06323957834801083;
              }
            } else {
              var8 = 0.04013617569161915;
            }
          }
        } else {
          if (input[5] > 15.500000000000002) {
            if (input[0] > 2554.0000000000005) {
              var8 = -0.009538108819559531;
            } else {
              if (input[5] > 22.500000000000004) {
                var8 = -0.018777561087447867;
              } else {
                var8 = 0.010481478255709277;
              }
            }
          } else {
            var8 = -0.011041208351894857;
          }
        }
      } else {
        if (input[5] > 18.500000000000004) {
          if (input[1] > 9.335000038146974) {
            var8 = 0.047580896446255946;
          } else {
            var8 = 0.08336480301222765;
          }
        } else {
          if (input[5] > 6.500000000000001) {
            if (input[3] > 6.500000000000001) {
              if (input[3] > 8.500000000000002) {
                var8 = 0.04363273338157572;
              } else {
                if (input[5] > 11.500000000000002) {
                  var8 = 0.011875791287942168;
                } else {
                  var8 = 0.03525595445557215;
                }
              }
            } else {
              if (input[3] > 3.5000000000000004) {
                if (input[4] > 17.500000000000004) {
                  var8 = 0.056863596163976654;
                } else {
                  if (input[3] > 4.500000000000001) {
                    if (input[4] > 10.500000000000002) {
                      var8 = 0.00821803169799786;
                    } else {
                      var8 = 0.03795941461725133;
                    }
                  } else {
                    if (input[4] > 10.500000000000002) {
                      var8 = 0.08827493393196251;
                    } else {
                      var8 = 0.030171501579544777;
                    }
                  }
                }
              } else {
                var8 = 0.015686275778959195;
              }
            }
          } else {
            var8 = 0.01813024281896126;
          }
        }
      }
    } else {
      if (input[5] > 19.500000000000004) {
        var8 = -0.003475227087106655;
      } else {
        if (input[5] > 2.5000000000000004) {
          var8 = -0.01779716553308075;
        } else {
          var8 = -0.00377739950162819;
        }
      }
    }
  }
  var var9;
  if (input[0] > 4353.000000000001) {
    if (input[0] > 4409.000000000001) {
      if (input[0] > 4961.500000000001) {
        var9 = -0.016160898731426822;
      } else {
        if (input[5] > 17.500000000000004) {
          if (input[5] > 21.500000000000004) {
            var9 = -0.01046860151564033;
          } else {
            var9 = 0.008698303110919431;
          }
        } else {
          var9 = -0.007781132276462495;
        }
      }
    } else {
      var9 = -0.018675732059241064;
    }
  } else {
    if (input[0] > 348.00000000000006) {
      if (input[0] > 762.0000000000001) {
        if (input[0] > 4106.500000000001) {
          if (input[0] > 4213.000000000001) {
            if (input[0] > 4283.000000000001) {
              if (input[5] > 16.500000000000004) {
                var9 = 0.0232628715909224;
              } else {
                var9 = 0.007359494704316457;
              }
            } else {
              if (input[5] > 10.500000000000002) {
                if (input[5] > 18.500000000000004) {
                  var9 = -0.009434843052475876;
                } else {
                  if (input[3] > 7.500000000000001) {
                    var9 = 0.01651223823883692;
                  } else {
                    var9 = -0.0028399369758722796;
                  }
                }
              } else {
                var9 = -0.012781595631502832;
              }
            }
          } else {
            if (input[5] > 17.500000000000004) {
              if (input[5] > 19.500000000000004) {
                var9 = 0.045726726048664346;
              } else {
                if (input[1] > 16.54500007629395) {
                  var9 = 0.06678590774796904;
                } else {
                  var9 = 0.1037846443577195;
                }
              }
            } else {
              if (input[4] > 17.500000000000004) {
                var9 = 0.03719982278380206;
              } else {
                if (input[3] > 6.500000000000001) {
                  var9 = 0.044172436706284776;
                } else {
                  if (input[4] > 2.5000000000000004) {
                    var9 = 0.06973337092171134;
                  } else {
                    var9 = 0.01331553137195962;
                  }
                }
              }
            }
          }
        } else {
          if (input[5] > 5.500000000000001) {
            var9 = -0.003452013042745769;
          } else {
            var9 = -0.015158048927853184;
          }
        }
      } else {
        if (input[5] > 18.500000000000004) {
          if (input[1] > 9.335000038146974) {
            if (input[5] > 22.500000000000004) {
              var9 = 0.022822144153757922;
            } else {
              var9 = 0.0476136635337025;
            }
          } else {
            var9 = 0.0750283221722514;
          }
        } else {
          if (input[5] > 6.500000000000001) {
            if (input[3] > 6.500000000000001) {
              var9 = 0.023275396223583995;
            } else {
              if (input[5] > 14.500000000000002) {
                var9 = 0.027222489192564453;
              } else {
                if (input[3] > 3.5000000000000004) {
                  var9 = 0.046305323980869825;
                } else {
                  var9 = 0.013521590240469034;
                }
              }
            }
          } else {
            var9 = 0.0163172185155911;
          }
        }
      }
    } else {
      if (input[5] > 19.500000000000004) {
        var9 = -0.0031277042925778493;
      } else {
        if (input[5] > 2.5000000000000004) {
          var9 = -0.01601744910333082;
        } else {
          var9 = -0.003399659341919678;
        }
      }
    }
  }
  var var10;
  if (input[0] > 4353.000000000001) {
    if (input[0] > 4409.000000000001) {
      if (input[0] > 4961.500000000001) {
        var10 = -0.014544809014072946;
      } else {
        var10 = -0.004849034245983695;
      }
    } else {
      var10 = -0.01680815908301679;
    }
  } else {
    if (input[0] > 348.00000000000006) {
      if (input[0] > 762.0000000000001) {
        if (input[0] > 4106.500000000001) {
          if (input[0] > 4213.000000000001) {
            if (input[0] > 4283.000000000001) {
              if (input[5] > 20.500000000000004) {
                if (input[5] > 22.500000000000004) {
                  var10 = 0.00948318884752336;
                } else {
                  var10 = 0.038619359205418;
                }
              } else {
                var10 = 0.008263306382173713;
              }
            } else {
              if (input[5] > 11.500000000000002) {
                if (input[5] > 14.500000000000002) {
                  var10 = -0.004424679518083608;
                } else {
                  var10 = 0.013131680295331996;
                }
              } else {
                var10 = -0.011100529858874839;
              }
            }
          } else {
            if (input[5] > 3.5000000000000004) {
              if (input[5] > 22.500000000000004) {
                var10 = 0.021457416243230304;
              } else {
                if (input[5] > 17.500000000000004) {
                  if (input[5] > 18.500000000000004) {
                    var10 = 0.04993547206865379;
                  } else {
                    var10 = 0.0821056654676795;
                  }
                } else {
                  if (input[1] > 13.605000019073488) {
                    var10 = 0.039432176040899714;
                  } else {
                    var10 = 0.05690029906108976;
                  }
                }
              }
            } else {
              var10 = 0.03009598556572677;
            }
          }
        } else {
          if (input[5] > 15.500000000000002) {
            if (input[0] > 2554.0000000000005) {
              var10 = -0.008239096533071267;
            } else {
              if (input[5] > 21.500000000000004) {
                var10 = -0.008550947760553793;
              } else {
                var10 = 0.011793170917972266;
              }
            }
          } else {
            var10 = -0.009150758975123616;
          }
        }
      } else {
        if (input[5] > 18.500000000000004) {
          if (input[3] > 4.500000000000001) {
            var10 = 0.03742622828510461;
          } else {
            var10 = 0.06334151187059439;
          }
        } else {
          if (input[5] > 6.500000000000001) {
            if (input[3] > 6.500000000000001) {
              if (input[3] > 8.500000000000002) {
                var10 = 0.036941920587125775;
              } else {
                if (input[5] > 11.500000000000002) {
                  var10 = 0.008360672419290402;
                } else {
                  var10 = 0.029402818993452314;
                }
              }
            } else {
              if (input[4] > 6.500000000000001) {
                if (input[3] > 3.5000000000000004) {
                  var10 = 0.04119307984462332;
                } else {
                  var10 = 0.012232676906407709;
                }
              } else {
                var10 = 0.019136268589764263;
              }
            }
          } else {
            var10 = 0.014685496763087376;
          }
        }
      }
    } else {
      if (input[5] > 21.500000000000004) {
        var10 = 0.0013261021587077711;
      } else {
        if (input[5] > 0.000000000000000000000000000000000010000000180025095) {
          var10 = -0.013062154615276492;
        } else {
          var10 = 0.005272821986548387;
        }
      }
    }
  }
  var var11;
  if (input[0] > 4353.000000000001) {
    if (input[0] > 4409.000000000001) {
      if (input[0] > 4961.500000000001) {
        var11 = -0.013090327732863657;
      } else {
        if (input[5] > 6.500000000000001) {
          var11 = -0.0018565966589146222;
        } else {
          var11 = -0.010210300343986983;
        }
      }
    } else {
      var11 = -0.015127343151139888;
    }
  } else {
    if (input[0] > 348.00000000000006) {
      if (input[0] > 762.0000000000001) {
        if (input[0] > 4106.500000000001) {
          if (input[0] > 4213.000000000001) {
            if (input[0] > 4283.000000000001) {
              if (input[5] > 16.500000000000004) {
                if (input[1] > 13.105000019073488) {
                  var11 = 0.01631446213924815;
                } else {
                  var11 = 0.04350373175178395;
                }
              } else {
                var11 = 0.00579721452049302;
              }
            } else {
              if (input[1] > 16.744999885559086) {
                if (input[3] > 7.500000000000001) {
                  var11 = 0.007186225556730668;
                } else {
                  var11 = -0.0065795505472771645;
                }
              } else {
                var11 = -0.009876134689402535;
              }
            }
          } else {
            if (input[4] > 17.500000000000004) {
              var11 = 0.03214714147213305;
            } else {
              if (input[3] > 6.500000000000001) {
                var11 = 0.03811065141381243;
              } else {
                if (input[4] > 4.500000000000001) {
                  var11 = 0.06516532979601478;
                } else {
                  var11 = 0.03065993284067974;
                }
              }
            }
          }
        } else {
          if (input[5] > 17.500000000000004) {
            if (input[3] > 6.500000000000001) {
              var11 = -0.001897692037816235;
            } else {
              if (input[5] > 22.500000000000004) {
                var11 = -0.01859093766127314;
              } else {
                var11 = 0.021180110225849536;
              }
            }
          } else {
            var11 = -0.007743367506239583;
          }
        }
      } else {
        if (input[5] > 18.500000000000004) {
          if (input[1] > 9.06500005722046) {
            if (input[5] > 22.500000000000004) {
              var11 = 0.016343166880015247;
            } else {
              var11 = 0.039096180744163746;
            }
          } else {
            var11 = 0.0625796048585677;
          }
        } else {
          if (input[5] > 6.500000000000001) {
            if (input[5] > 14.500000000000002) {
              if (input[1] > 12.81500005722046) {
                var11 = 0.012736423981870757;
              } else {
                if (input[4] > 6.500000000000001) {
                  var11 = 0.050835700071792105;
                } else {
                  var11 = -0.001225085151060645;
                }
              }
            } else {
              if (input[3] > 6.500000000000001) {
                var11 = 0.022315230533105065;
              } else {
                var11 = 0.03580078736646537;
              }
            }
          } else {
            if (
              input[5] > 0.000000000000000000000000000000000010000000180025095
            ) {
              var11 = 0.010539332353287405;
            } else {
              var11 = 0.02963379900826172;
            }
          }
        }
      }
    } else {
      if (input[5] > 19.500000000000004) {
        var11 = -0.0022488926458878733;
      } else {
        if (input[5] > 2.5000000000000004) {
          var11 = -0.013109488873101323;
        } else {
          var11 = -0.0023686060653259826;
        }
      }
    }
  }
  var var12;
  if (input[0] > 4353.000000000001) {
    if (input[0] > 4409.000000000001) {
      if (input[0] > 4961.500000000001) {
        var12 = -0.011781294991442795;
      } else {
        if (input[5] > 17.500000000000004) {
          if (input[5] > 21.500000000000004) {
            var12 = -0.008751178469469779;
          } else {
            if (input[1] > 13.484999656677248) {
              var12 = 0.0019270737731760066;
            } else {
              var12 = 0.01980892479538831;
            }
          }
        } else {
          var12 = -0.005999592560162213;
        }
      }
    } else {
      var12 = -0.013614609043815668;
    }
  } else {
    if (input[0] > 348.00000000000006) {
      if (input[0] > 762.0000000000001) {
        if (input[0] > 4106.500000000001) {
          if (input[0] > 4213.000000000001) {
            if (input[0] > 4283.000000000001) {
              if (input[5] > 20.500000000000004) {
                if (input[5] > 22.500000000000004) {
                  var12 = 0.006256059880251997;
                } else {
                  var12 = 0.0327129764178815;
                }
              } else {
                var12 = 0.006631082241231523;
              }
            } else {
              if (input[5] > 11.500000000000002) {
                if (input[5] > 18.500000000000004) {
                  var12 = -0.007496788150710573;
                } else {
                  var12 = 0.006084923054670279;
                }
              } else {
                var12 = -0.009327942684238205;
              }
            }
          } else {
            if (input[5] > 4.500000000000001) {
              if (input[5] > 6.500000000000001) {
                if (input[5] > 12.500000000000002) {
                  if (input[5] > 22.500000000000004) {
                    var12 = 0.015560466378927232;
                  } else {
                    var12 = 0.04162064308222374;
                  }
                } else {
                  var12 = 0.02749907406884133;
                }
              } else {
                if (input[5] > 5.500000000000001) {
                  var12 = 0.06727839882321217;
                } else {
                  var12 = 0.03593893886488666;
                }
              }
            } else {
              var12 = 0.024576182734881186;
            }
          }
        } else {
          if (input[5] > 5.500000000000001) {
            if (input[0] > 2554.0000000000005) {
              var12 = -0.007100083987445359;
            } else {
              var12 = 0.0005456518250567967;
            }
          } else {
            var12 = -0.011952831488073502;
          }
        }
      } else {
        if (input[5] > 18.500000000000004) {
          if (input[5] > 22.500000000000004) {
            var12 = 0.016682842207206484;
          } else {
            if (input[1] > 9.335000038146974) {
              var12 = 0.03487460836497417;
            } else {
              var12 = 0.06706984482119309;
            }
          }
        } else {
          if (input[5] > 6.500000000000001) {
            if (input[5] > 14.500000000000002) {
              var12 = 0.01535994091170705;
            } else {
              if (input[3] > 6.500000000000001) {
                var12 = 0.020083707613436173;
              } else {
                var12 = 0.03222070884611152;
              }
            }
          } else {
            var12 = 0.011895252522449117;
          }
        }
      }
    } else {
      if (input[5] > 21.500000000000004) {
        var12 = 0.0014183815131702166;
      } else {
        if (input[5] > 0.000000000000000000000000000000000010000000180025095) {
          var12 = -0.010648557465991663;
        } else {
          var12 = 0.004982401167631941;
        }
      }
    }
  }
  var var13;
  if (input[0] > 4353.000000000001) {
    if (input[0] > 4409.000000000001) {
      if (input[0] > 4961.500000000001) {
        var13 = -0.010603165709618698;
      } else {
        if (input[5] > 7.500000000000001) {
          var13 = -0.0011404476028912453;
        } else {
          var13 = -0.008161279628746217;
        }
      }
    } else {
      var13 = -0.01225314801709602;
    }
  } else {
    if (input[0] > 348.00000000000006) {
      if (input[0] > 762.0000000000001) {
        if (input[0] > 4106.500000000001) {
          if (input[0] > 4213.000000000001) {
            if (input[0] > 4283.000000000001) {
              if (input[5] > 16.500000000000004) {
                var13 = 0.015934655375206063;
              } else {
                var13 = 0.00455438481828365;
              }
            } else {
              if (input[3] > 7.500000000000001) {
                if (input[1] > 19.814999580383304) {
                  var13 = 0.01377728318711054;
                } else {
                  var13 = -0.003487094330824863;
                }
              } else {
                var13 = -0.007890491120912153;
              }
            }
          } else {
            if (input[4] > 16.500000000000004) {
              var13 = 0.025707131836612752;
            } else {
              if (input[3] > 6.500000000000001) {
                var13 = 0.030586228107458868;
              } else {
                if (input[4] > 5.500000000000001) {
                  var13 = 0.060042381460985374;
                } else {
                  var13 = 0.027393533457102926;
                }
              }
            }
          }
        } else {
          if (input[5] > 17.500000000000004) {
            if (input[5] > 21.500000000000004) {
              var13 = -0.007420336492641355;
            } else {
              if (input[0] > 2554.0000000000005) {
                var13 = -0.005844220600100052;
              } else {
                var13 = 0.015246017719751268;
              }
            }
          } else {
            var13 = -0.0064196476420285;
          }
        }
      } else {
        if (input[5] > 19.500000000000004) {
          if (input[5] > 22.500000000000004) {
            var13 = 0.015014557842391009;
          } else {
            if (input[4] > 18.500000000000004) {
              var13 = 0.05300029023794334;
            } else {
              if (input[3] > 4.500000000000001) {
                if (input[3] > 7.500000000000001) {
                  var13 = 0.04755950705422199;
                } else {
                  var13 = 0.012286628323853908;
                }
              } else {
                var13 = 0.058447060049511494;
              }
            }
          }
        } else {
          if (input[5] > 6.500000000000001) {
            if (input[1] > 11.154999732971193) {
              var13 = 0.01812530886814377;
            } else {
              if (input[5] > 9.500000000000002) {
                if (input[4] > 6.500000000000001) {
                  var13 = 0.0525447841107618;
                } else {
                  var13 = 0.017695158106259636;
                }
              } else {
                var13 = 0.01880216341707166;
              }
            }
          } else {
            if (input[5] > 1.5000000000000002) {
              var13 = 0.006887719759806281;
            } else {
              var13 = 0.02072799718628327;
            }
          }
        }
      }
    } else {
      if (input[5] > 19.500000000000004) {
        var13 = -0.0015799059143898732;
      } else {
        if (input[5] > 14.500000000000002) {
          var13 = -0.015261426003996152;
        } else {
          var13 = -0.0074104106259429165;
        }
      }
    }
  }
  var var14;
  if (input[0] > 4353.000000000001) {
    if (input[0] > 4409.000000000001) {
      if (input[0] > 4961.500000000001) {
        var14 = -0.009542849019917702;
      } else {
        if (input[5] > 18.500000000000004) {
          if (input[5] > 21.500000000000004) {
            var14 = -0.007762015663161037;
          } else {
            var14 = 0.010922052335041779;
          }
        } else {
          var14 = -0.004790678355383039;
        }
      }
    } else {
      var14 = -0.011027832917355533;
    }
  } else {
    if (input[0] > 348.00000000000006) {
      if (input[0] > 762.0000000000001) {
        if (input[0] > 4106.500000000001) {
          if (input[0] > 4213.000000000001) {
            if (input[0] > 4283.000000000001) {
              if (input[5] > 20.500000000000004) {
                if (input[5] > 22.500000000000004) {
                  var14 = 0.004036988353722596;
                } else {
                  var14 = 0.027848212867087847;
                }
              } else {
                var14 = 0.005297035263473463;
              }
            } else {
              if (input[5] > 11.500000000000002) {
                if (input[5] > 14.500000000000002) {
                  var14 = -0.003032537639226379;
                } else {
                  var14 = 0.01149661203445627;
                }
              } else {
                if (input[5] > 1.5000000000000002) {
                  var14 = -0.010348966545951877;
                } else {
                  var14 = 0.005212154854058587;
                }
              }
            }
          } else {
            if (input[5] > 3.5000000000000004) {
              if (input[1] > 17.345000267028812) {
                var14 = 0.025298112444290467;
              } else {
                if (input[5] > 20.500000000000004) {
                  var14 = 0.02289683065484152;
                } else {
                  var14 = 0.0365538975897012;
                }
              }
            } else {
              var14 = 0.017720491063803256;
            }
          }
        } else {
          if (input[5] > 5.500000000000001) {
            var14 = -0.0016463699928110722;
          } else {
            var14 = -0.01011558376241918;
          }
        }
      } else {
        if (input[5] > 19.500000000000004) {
          if (input[5] > 21.500000000000004) {
            if (input[3] > 6.500000000000001) {
              var14 = 0.007745820442687546;
            } else {
              if (input[1] > 15.19499969482422) {
                var14 = 0.06204251167923212;
              } else {
                var14 = 0.023508172020172843;
              }
            }
          } else {
            var14 = 0.040944482078174915;
          }
        } else {
          if (input[5] > 6.500000000000001) {
            if (input[1] > 11.154999732971193) {
              if (input[5] > 14.500000000000002) {
                var14 = 0.010559396651448068;
              } else {
                var14 = 0.020388722246869505;
              }
            } else {
              if (input[5] > 9.500000000000002) {
                if (input[4] > 6.500000000000001) {
                  var14 = 0.047290305200483884;
                } else {
                  var14 = 0.015925641707526368;
                }
              } else {
                var14 = 0.01692194692969443;
              }
            }
          } else {
            var14 = 0.009635154527907084;
          }
        }
      }
    } else {
      if (input[5] > 21.500000000000004) {
        var14 = 0.001434534301146547;
      } else {
        if (input[5] > 0.000000000000000000000000000000000010000000180025095) {
          var14 = -0.008711266244278438;
        } else {
          var14 = 0.005225201681760199;
        }
      }
    }
  }
  var var15;
  if (input[0] > 4353.000000000001) {
    if (input[0] > 4409.000000000001) {
      if (input[0] > 4961.500000000001) {
        var15 = -0.008588564094721666;
      } else {
        var15 = -0.0028633063588880624;
      }
    } else {
      var15 = -0.009925049907003025;
    }
  } else {
    if (input[0] > 348.00000000000006) {
      if (input[0] > 762.0000000000001) {
        if (input[0] > 4106.500000000001) {
          if (input[0] > 4213.000000000001) {
            if (input[0] > 4283.000000000001) {
              if (input[5] > 16.500000000000004) {
                if (input[1] > 13.105000019073488) {
                  var15 = 0.01062699847047835;
                } else {
                  if (input[4] > 9.500000000000002) {
                    var15 = 0.01522637663560139;
                  } else {
                    var15 = 0.06423195116221905;
                  }
                }
              } else {
                var15 = 0.0035692428886591105;
              }
            } else {
              if (input[3] > 7.500000000000001) {
                if (input[1] > 19.175000190734867) {
                  var15 = 0.011151662027065195;
                } else {
                  var15 = -0.0032450919096046363;
                }
              } else {
                var15 = -0.006737470358974724;
              }
            }
          } else {
            if (input[5] > 17.500000000000004) {
              if (input[5] > 18.500000000000004) {
                if (input[5] > 22.500000000000004) {
                  var15 = 0.008642264768636476;
                } else {
                  var15 = 0.03112057404885878;
                }
              } else {
                var15 = 0.05984352414432745;
              }
            } else {
              var15 = 0.02239492361614366;
            }
          }
        } else {
          if (input[5] > 7.500000000000001) {
            var15 = -0.001039551180189139;
          } else {
            var15 = -0.008187470159520656;
          }
        }
      } else {
        if (input[5] > 18.500000000000004) {
          if (input[1] > 9.335000038146974) {
            if (input[3] > 8.500000000000002) {
              var15 = 0.045259078427289545;
            } else {
              if (input[4] > 20.500000000000004) {
                var15 = 0.0308547343270828;
              } else {
                if (input[3] > 7.500000000000001) {
                  var15 = 0.028770258061185078;
                } else {
                  if (input[1] > 13.105000019073488) {
                    var15 = -0.004121125840221442;
                  } else {
                    var15 = 0.020795756766927385;
                  }
                }
              }
            }
          } else {
            var15 = 0.043269021594564305;
          }
        } else {
          if (input[3] > 6.500000000000001) {
            if (input[3] > 8.500000000000002) {
              if (input[5] > 9.500000000000002) {
                if (input[4] > 5.500000000000001) {
                  var15 = 0.020255520318481907;
                } else {
                  var15 = 0.0665078267455101;
                }
              } else {
                var15 = 0.00564914353109654;
              }
            } else {
              var15 = 0.006384385196802645;
            }
          } else {
            if (input[1] > 23.830000877380375) {
              var15 = 0.05940346064638685;
            } else {
              var15 = 0.016631432298459776;
            }
          }
        }
      }
    } else {
      if (input[5] > 19.500000000000004) {
        var15 = -0.0010727180137029945;
      } else {
        if (input[5] > 2.5000000000000004) {
          var15 = -0.00889383467646583;
        } else {
          var15 = -0.00044669227620263737;
        }
      }
    }
  }
  var var16;
  if (input[0] > 4353.000000000001) {
    if (input[5] > 6.500000000000001) {
      if (input[0] > 4409.000000000001) {
        var16 = -0.0031843652501291086;
      } else {
        var16 = -0.008368194943773336;
      }
    } else {
      var16 = -0.00962818459010062;
    }
  } else {
    if (input[0] > 348.00000000000006) {
      if (input[0] > 762.0000000000001) {
        if (input[0] > 4106.500000000001) {
          if (input[0] > 4213.000000000001) {
            if (input[0] > 4283.000000000001) {
              if (input[5] > 19.500000000000004) {
                var16 = 0.014595571914051446;
              } else {
                var16 = 0.003973103163143868;
              }
            } else {
              var16 = -0.0030023504914561275;
            }
          } else {
            if (input[4] > 16.500000000000004) {
              var16 = 0.017921596345644376;
            } else {
              if (input[3] > 6.500000000000001) {
                var16 = 0.022279768482509635;
              } else {
                if (input[4] > 5.500000000000001) {
                  var16 = 0.048370068738004195;
                } else {
                  var16 = 0.019048252084758133;
                }
              }
            }
          }
        } else {
          if (input[5] > 17.500000000000004) {
            if (input[5] > 21.500000000000004) {
              var16 = -0.006409710669704445;
            } else {
              if (input[0] > 2554.0000000000005) {
                var16 = -0.004991206362990174;
              } else {
                if (input[1] > 15.44499969482422) {
                  var16 = 0.007862133483535478;
                } else {
                  if (input[1] > 14.56500005722046) {
                    var16 = 0.056813405986343116;
                  } else {
                    var16 = 0.01781626264152082;
                  }
                }
              }
            }
          } else {
            var16 = -0.004910630861935527;
          }
        }
      } else {
        if (input[5] > 6.500000000000001) {
          if (input[3] > 4.500000000000001) {
            if (input[4] > 22.500000000000004) {
              if (input[3] > 6.500000000000001) {
                var16 = 0.010174969712918128;
              } else {
                if (input[4] > 24.500000000000004) {
                  var16 = 0.036114298478316736;
                } else {
                  var16 = 0.06620700805492345;
                }
              }
            } else {
              if (input[3] > 8.500000000000002) {
                if (input[4] > 5.500000000000001) {
                  var16 = 0.016754239492694892;
                } else {
                  if (input[4] > 3.5000000000000004) {
                    var16 = 0.08168918288384493;
                  } else {
                    var16 = 0.029085010071011153;
                  }
                }
              } else {
                var16 = 0.009105456876369565;
              }
            }
          } else {
            if (input[3] > 3.5000000000000004) {
              if (input[4] > 10.500000000000002) {
                if (input[4] > 22.500000000000004) {
                  var16 = 0.02445605619108639;
                } else {
                  if (input[1] > 7.325000047683717) {
                    if (input[1] > 8.684999942779543) {
                      var16 = 0.05542770968075248;
                    } else {
                      var16 = 0.08998760503406326;
                    }
                  } else {
                    var16 = 0.029785920437928794;
                  }
                }
              } else {
                var16 = 0.011463326213803764;
              }
            } else {
              var16 = 0.0042426628399301666;
            }
          }
        } else {
          var16 = 0.0074708201686768715;
        }
      }
    } else {
      var16 = -0.005878386271984622;
    }
  }
  var var17;
  if (input[0] > 4353.000000000001) {
    if (input[5] > 16.500000000000004) {
      var17 = -0.002728866699156159;
    } else {
      var17 = -0.007017898838342879;
    }
  } else {
    if (input[0] > 348.00000000000006) {
      if (input[0] > 762.0000000000001) {
        if (input[0] > 4106.500000000001) {
          if (input[0] > 4213.000000000001) {
            if (input[0] > 4283.000000000001) {
              if (input[5] > 16.500000000000004) {
                var17 = 0.010878972152956391;
              } else {
                var17 = 0.0028150084513765324;
              }
            } else {
              if (input[5] > 10.500000000000002) {
                var17 = 0.0007120154539688753;
              } else {
                if (input[5] > 2.5000000000000004) {
                  var17 = -0.010213184556361554;
                } else {
                  var17 = 0.0028324710746995226;
                }
              }
            }
          } else {
            if (input[5] > 17.500000000000004) {
              if (input[5] > 19.500000000000004) {
                var17 = 0.018915328825717486;
              } else {
                if (input[1] > 16.54500007629395) {
                  if (input[3] > 8.500000000000002) {
                    var17 = 0.06873191178199792;
                  } else {
                    if (input[1] > 22.399999618530277) {
                      var17 = 0.06070234017446638;
                    } else {
                      var17 = 0.018237312012795538;
                    }
                  }
                } else {
                  var17 = 0.06406840825418257;
                }
              }
            } else {
              var17 = 0.01790359606957699;
            }
          }
        } else {
          if (input[5] > 5.500000000000001) {
            var17 = -0.0010588823616884016;
          } else {
            var17 = -0.007794215219929523;
          }
        }
      } else {
        if (input[5] > 19.500000000000004) {
          if (input[5] > 22.500000000000004) {
            var17 = 0.0067850937029685495;
          } else {
            if (input[4] > 18.500000000000004) {
              var17 = 0.039063381206368014;
            } else {
              var17 = 0.020961757249612776;
            }
          }
        } else {
          if (input[3] > 4.500000000000001) {
            if (input[1] > 15.824999809265138) {
              if (input[3] > 8.500000000000002) {
                var17 = 0.026941268773417373;
              } else {
                if (input[3] > 6.500000000000001) {
                  var17 = 0.006708088375284033;
                } else {
                  if (input[5] > 16.500000000000004) {
                    var17 = -0.0007318066805601121;
                  } else {
                    if (input[4] > 18.500000000000004) {
                      var17 = 0.036121671716566196;
                    } else {
                      if (input[4] > 12.500000000000002) {
                        var17 = -0.014492759879293113;
                      } else {
                        var17 = 0.03098740912973881;
                      }
                    }
                  }
                }
              }
            } else {
              var17 = 0.005026910115592416;
            }
          } else {
            if (input[1] > 14.355000019073488) {
              var17 = -0.01016470946523608;
            } else {
              if (input[5] > 9.500000000000002) {
                if (input[4] > 10.500000000000002) {
                  if (input[4] > 21.500000000000004) {
                    var17 = 0.016979420260759073;
                  } else {
                    var17 = 0.05967615235086459;
                  }
                } else {
                  var17 = 0.006416591078809955;
                }
              } else {
                var17 = 0.0132215838470794;
              }
            }
          }
        }
      }
    } else {
      var17 = -0.005290547558108285;
    }
  }
  var var18;
  if (input[0] > 4353.000000000001) {
    if (input[5] > 6.500000000000001) {
      if (input[0] > 4409.000000000001) {
        if (input[0] > 4961.500000000001) {
          var18 = -0.005169280994780586;
        } else {
          var18 = 0.0001672623214655816;
        }
      } else {
        var18 = -0.007005276326006814;
      }
    } else {
      var18 = -0.007963576365575565;
    }
  } else {
    if (input[0] > 348.00000000000006) {
      if (input[0] > 762.0000000000001) {
        if (input[0] > 4106.500000000001) {
          if (input[0] > 4213.000000000001) {
            if (input[0] > 4283.000000000001) {
              var18 = 0.004636827181017301;
            } else {
              if (input[3] > 7.500000000000001) {
                if (input[1] > 20.714999198913578) {
                  var18 = 0.014221168868169069;
                } else {
                  var18 = -0.0010553187703161444;
                }
              } else {
                var18 = -0.005503261767194372;
              }
            }
          } else {
            if (input[5] > 4.500000000000001) {
              if (input[5] > 6.500000000000001) {
                if (input[5] > 12.500000000000002) {
                  if (input[5] > 22.500000000000004) {
                    var18 = 0.0036834680484607815;
                  } else {
                    var18 = 0.023982642854807352;
                  }
                } else {
                  var18 = 0.012208619242087045;
                }
              } else {
                if (input[5] > 5.500000000000001) {
                  var18 = 0.047796352117267606;
                } else {
                  var18 = 0.019514463830886314;
                }
              }
            } else {
              var18 = 0.01060065353594139;
            }
          }
        } else {
          if (input[5] > 17.500000000000004) {
            if (input[5] > 20.500000000000004) {
              var18 = -0.0033797804813695863;
            } else {
              if (input[1] > 17.39499950408936) {
                var18 = -0.002716310198359169;
              } else {
                if (input[0] > 2554.0000000000005) {
                  var18 = 0.0010544890332419208;
                } else {
                  var18 = 0.02786733626063714;
                }
              }
            }
          } else {
            var18 = -0.004087833621115319;
          }
        }
      } else {
        if (input[5] > 19.500000000000004) {
          if (input[5] > 21.500000000000004) {
            var18 = 0.012167114587125723;
          } else {
            var18 = 0.029665395633539093;
          }
        } else {
          if (input[5] > 6.500000000000001) {
            var18 = 0.01234660266592278;
          } else {
            if (
              input[5] > 0.000000000000000000000000000000000010000000180025095
            ) {
              var18 = 0.003667769707696709;
            } else {
              var18 = 0.019658967324811205;
            }
          }
        }
      }
    } else {
      if (input[3] > 8.500000000000002) {
        if (input[5] > 18.500000000000004) {
          if (input[2] > 2011.5000000000002) {
            if (input[4] > 8.500000000000002) {
              var18 = 0.07767001467828567;
            } else {
              var18 = 0.022309111713642076;
            }
          } else {
            var18 = -0.00586974209246154;
          }
        } else {
          var18 = -0.0028029585175131117;
        }
      } else {
        if (input[1] > 11.47499990463257) {
          var18 = -0.00851644892373524;
        } else {
          if (input[5] > 21.500000000000004) {
            var18 = 0.007031144382594859;
          } else {
            var18 = -0.004216078625242611;
          }
        }
      }
    }
  }
  var var19;
  if (input[0] > 4353.000000000001) {
    if (input[5] > 16.500000000000004) {
      var19 = -0.002052729556365291;
    } else {
      var19 = -0.005749166712034659;
    }
  } else {
    if (input[0] > 348.00000000000006) {
      if (input[0] > 762.0000000000001) {
        if (input[0] > 4106.500000000001) {
          if (input[0] > 4213.000000000001) {
            if (input[0] > 4283.000000000001) {
              var19 = 0.004173144391697404;
            } else {
              var19 = -0.0021887136606447183;
            }
          } else {
            if (input[4] > 17.500000000000004) {
              if (
                input[5] > 0.000000000000000000000000000000000010000000180025095
              ) {
                var19 = 0.013229289492703154;
              } else {
                var19 = -0.0138367049657141;
              }
            } else {
              if (input[3] > 6.500000000000001) {
                var19 = 0.01648900779514984;
              } else {
                if (input[4] > 4.500000000000001) {
                  if (input[4] > 15.500000000000002) {
                    var19 = 0.007114770943298936;
                  } else {
                    var19 = 0.04049779051159087;
                  }
                } else {
                  var19 = 0.009772119187782037;
                }
              }
            }
          }
        } else {
          var19 = -0.0022313417139162082;
        }
      } else {
        if (input[3] > 4.500000000000001) {
          if (input[1] > 15.824999809265138) {
            if (input[3] > 5.500000000000001) {
              if (input[3] > 8.500000000000002) {
                if (input[4] > 5.500000000000001) {
                  var19 = 0.014540976711401817;
                } else {
                  var19 = 0.04572308042771974;
                }
              } else {
                var19 = 0.008320931241055131;
              }
            } else {
              var19 = 0.028461256168352874;
            }
          } else {
            var19 = 0.004566903083713657;
          }
        } else {
          if (input[1] > 14.265000343322756) {
            var19 = -0.00889299242353102;
          } else {
            if (input[5] > 9.500000000000002) {
              if (input[4] > 8.500000000000002) {
                if (input[4] > 22.500000000000004) {
                  var19 = 0.01682803606741297;
                } else {
                  var19 = 0.04729055685601358;
                }
              } else {
                var19 = 0.0032765261818316176;
              }
            } else {
              var19 = 0.01114270524720648;
            }
          }
        }
      }
    } else {
      if (input[5] > 0.000000000000000000000000000000000010000000180025095) {
        if (input[5] > 19.500000000000004) {
          if (input[3] > 8.500000000000002) {
            if (input[1] > 13.355000019073488) {
              var19 = 0.04441774823702872;
            } else {
              var19 = -0.0012053674467923966;
            }
          } else {
            if (input[1] > 17.66499996185303) {
              var19 = -0.02183942928007155;
            } else {
              var19 = -0.00019165917675576142;
            }
          }
        } else {
          if (input[5] > 14.500000000000002) {
            var19 = -0.010277250645870588;
          } else {
            if (input[5] > 7.500000000000001) {
              var19 = -0.0007420962038559184;
            } else {
              if (input[5] > 3.5000000000000004) {
                var19 = -0.011445146968948727;
              } else {
                if (input[3] > 3.5000000000000004) {
                  var19 = -0.007039391508290624;
                } else {
                  var19 = 0.006253580960307133;
                }
              }
            }
          }
        }
      } else {
        var19 = 0.006412189936092133;
      }
    }
  }
  var var20;
  if (input[0] > 4353.000000000001) {
    if (input[0] > 4409.000000000001) {
      if (input[0] > 4961.500000000001) {
        var20 = -0.005583429311674125;
      } else {
        var20 = -0.0007909760984998303;
      }
    } else {
      var20 = -0.0062845815217174575;
    }
  } else {
    if (input[0] > 348.00000000000006) {
      if (input[0] > 762.0000000000001) {
        if (input[0] > 4106.500000000001) {
          if (input[0] > 4213.000000000001) {
            if (input[5] > 11.500000000000002) {
              var20 = 0.003815769234638547;
            } else {
              if (input[0] > 4283.000000000001) {
                var20 = 0.001288667008137838;
              } else {
                if (input[5] > 1.5000000000000002) {
                  var20 = -0.007310058224696513;
                } else {
                  var20 = 0.005746520697017463;
                }
              }
            }
          } else {
            if (input[5] > 17.500000000000004) {
              if (input[5] > 18.500000000000004) {
                var20 = 0.016028265461985915;
              } else {
                var20 = 0.04319201461757158;
              }
            } else {
              if (input[1] > 10.885000228881838) {
                var20 = 0.011946986068906202;
              } else {
                var20 = 0.030389734505174255;
              }
            }
          }
        } else {
          if (input[5] > 15.500000000000002) {
            if (input[0] > 2554.0000000000005) {
              var20 = -0.004326274857387231;
            } else {
              if (input[5] > 22.500000000000004) {
                var20 = -0.012603659600346954;
              } else {
                if (input[1] > 22.835000038146976) {
                  var20 = -0.010735766772391662;
                } else {
                  var20 = 0.009336075399779773;
                }
              }
            }
          } else {
            var20 = -0.0038084918343620727;
          }
        }
      } else {
        if (input[5] > 18.500000000000004) {
          if (input[5] > 22.500000000000004) {
            var20 = 0.003686906058327154;
          } else {
            if (input[1] > 9.335000038146974) {
              if (input[3] > 8.500000000000002) {
                var20 = 0.038255508852804584;
              } else {
                var20 = 0.013767715360925015;
              }
            } else {
              var20 = 0.037171963424174996;
            }
          }
        } else {
          if (input[3] > 6.500000000000001) {
            if (input[4] > 5.500000000000001) {
              var20 = 0.0022519379548301337;
            } else {
              if (input[1] > 16.935000419616703) {
                if (input[4] > 4.500000000000001) {
                  var20 = 0.0519855022684417;
                } else {
                  if (input[3] > 8.500000000000002) {
                    var20 = 0.04111518542468548;
                  } else {
                    var20 = 0.006721670758431881;
                  }
                }
              } else {
                var20 = 0.0012295415536500514;
              }
            }
          } else {
            if (input[1] > 23.830000877380375) {
              var20 = 0.04289337669245222;
            } else {
              var20 = 0.010016679693221758;
            }
          }
        }
      }
    } else {
      if (input[5] > 0.000000000000000000000000000000000010000000180025095) {
        if (input[3] > 8.500000000000002) {
          if (input[5] > 18.500000000000004) {
            var20 = 0.010915191417779796;
          } else {
            var20 = -0.002497434033017127;
          }
        } else {
          var20 = -0.005182200532506097;
        }
      } else {
        var20 = 0.00577097097555865;
      }
    }
  }
  var var21;
  if (input[0] > 4353.000000000001) {
    if (input[5] > 7.500000000000001) {
      if (input[0] > 4409.000000000001) {
        if (input[3] > 8.500000000000002) {
          var21 = -0.008252495542744246;
        } else {
          if (input[0] > 4961.500000000001) {
            var21 = -0.0029799513254767374;
          } else {
            var21 = 0.0017222096557116728;
          }
        }
      } else {
        var21 = -0.005275866562268818;
      }
    } else {
      var21 = -0.005968207556245929;
    }
  } else {
    if (input[0] > 348.00000000000006) {
      if (input[0] > 762.0000000000001) {
        if (input[0] > 4106.500000000001) {
          if (input[0] > 4213.000000000001) {
            if (input[0] > 4283.000000000001) {
              if (input[5] > 20.500000000000004) {
                if (input[5] > 22.500000000000004) {
                  var21 = -0.0018156673793869448;
                } else {
                  var21 = 0.019903685794435914;
                }
              } else {
                var21 = 0.00224799337886007;
              }
            } else {
              if (input[3] > 7.500000000000001) {
                if (input[4] > 14.500000000000002) {
                  var21 = -0.0043460831769202325;
                } else {
                  if (input[4] > 7.500000000000001) {
                    if (input[3] > 8.500000000000002) {
                      var21 = -0.0028740072663387527;
                    } else {
                      var21 = 0.03588423592398964;
                    }
                  } else {
                    var21 = -0.004730592033408616;
                  }
                }
              } else {
                var21 = -0.004672844425439773;
              }
            }
          } else {
            if (input[5] > 4.500000000000001) {
              if (input[5] > 6.500000000000001) {
                if (input[5] > 12.500000000000002) {
                  if (input[5] > 22.500000000000004) {
                    var21 = 0.0000774369655797879;
                  } else {
                    if (input[1] > 20.26000022888184) {
                      if (input[1] > 21.48499965667725) {
                        var21 = 0.01938795501711083;
                      } else {
                        var21 = -0.004688709110025016;
                      }
                    } else {
                      if (input[5] > 20.500000000000004) {
                        var21 = 0.01093918281707712;
                      } else {
                        var21 = 0.025259090461624417;
                      }
                    }
                  }
                } else {
                  var21 = 0.008046163356125213;
                }
              } else {
                if (input[3] > 6.500000000000001) {
                  var21 = 0.019501081133772316;
                } else {
                  var21 = 0.04804149951814907;
                }
              }
            } else {
              var21 = 0.006696454450355204;
            }
          }
        } else {
          if (input[5] > 5.500000000000001) {
            if (input[1] > 12.175000190734865) {
              var21 = -0.0011888343283468874;
            } else {
              var21 = 0.011509414348947063;
            }
          } else {
            var21 = -0.0060020268607133866;
          }
        }
      } else {
        if (input[5] > 19.500000000000004) {
          if (input[5] > 21.500000000000004) {
            if (input[3] > 6.500000000000001) {
              var21 = -0.001523768887688805;
            } else {
              if (input[1] > 15.19499969482422) {
                var21 = 0.04292684845719487;
              } else {
                var21 = 0.010574194147036626;
              }
            }
          } else {
            var21 = 0.023439133656657146;
          }
        } else {
          var21 = 0.007196244014622811;
        }
      }
    } else {
      var21 = -0.0034711282920996756;
    }
  }
  var var22;
  if (input[0] > 4353.000000000001) {
    if (input[5] > 16.500000000000004) {
      var22 = -0.0011569331673498497;
    } else {
      var22 = -0.004330407376108638;
    }
  } else {
    if (input[0] > 348.00000000000006) {
      if (input[3] > 4.500000000000001) {
        if (input[5] > 8.500000000000002) {
          if (input[5] > 22.500000000000004) {
            var22 = -0.0030208752211423346;
          } else {
            if (input[1] > 12.81500005722046) {
              if (input[5] > 17.500000000000004) {
                if (input[0] > 4213.000000000001) {
                  if (input[0] > 4283.000000000001) {
                    if (input[1] > 18.800000190734867) {
                      var22 = -0.002735330245923251;
                    } else {
                      var22 = 0.01243460795680006;
                    }
                  } else {
                    var22 = -0.0027515667796801976;
                  }
                } else {
                  if (input[0] > 4106.500000000001) {
                    if (input[5] > 18.500000000000004) {
                      var22 = 0.014278340434763571;
                    } else {
                      var22 = 0.03632707000211921;
                    }
                  } else {
                    if (input[0] > 2554.0000000000005) {
                      var22 = -0.0033248753038799908;
                    } else {
                      if (input[3] > 8.500000000000002) {
                        var22 = 0.022475127991937665;
                      } else {
                        var22 = 0.006531196448667169;
                      }
                    }
                  }
                }
              } else {
                var22 = 0.0029941605208243446;
              }
            } else {
              if (input[0] > 4283.000000000001) {
                if (input[4] > 9.500000000000002) {
                  var22 = 0.0024812397648296927;
                } else {
                  var22 = 0.07185528156906366;
                }
              } else {
                var22 = 0.012072204908497081;
              }
            }
          }
        } else {
          var22 = 0.0005532383724422476;
        }
      } else {
        if (input[1] > 14.355000019073488) {
          var22 = -0.010616365745663645;
        } else {
          if (input[5] > 9.500000000000002) {
            if (input[4] > 8.500000000000002) {
              if (input[4] > 22.500000000000004) {
                var22 = 0.012484927245485966;
              } else {
                var22 = 0.03984409822624755;
              }
            } else {
              var22 = 0.00042863549640426396;
            }
          } else {
            if (
              input[5] > 0.000000000000000000000000000000000010000000180025095
            ) {
              var22 = 0.005790248298546344;
            } else {
              var22 = 0.032701655231022204;
            }
          }
        }
      }
    } else {
      if (input[5] > 1.5000000000000002) {
        if (input[5] > 6.500000000000001) {
          if (input[5] > 12.500000000000002) {
            if (input[5] > 19.500000000000004) {
              if (input[3] > 8.500000000000002) {
                if (input[1] > 13.355000019073488) {
                  var22 = 0.039231567345559604;
                } else {
                  var22 = -0.0018292372088498353;
                }
              } else {
                var22 = -0.001229249541640772;
              }
            } else {
              var22 = -0.00732188547262512;
            }
          } else {
            var22 = 0.0011428728353881851;
          }
        } else {
          if (input[5] > 3.5000000000000004) {
            var22 = -0.011390562929703052;
          } else {
            if (input[3] > 3.5000000000000004) {
              var22 = -0.0073081507428103465;
            } else {
              var22 = 0.006502923959493637;
            }
          }
        }
      } else {
        var22 = 0.0031061970527358445;
      }
    }
  }
  var var23;
  if (input[0] > 4353.000000000001) {
    var23 = -0.0030665776757791557;
  } else {
    if (input[0] > 348.00000000000006) {
      if (input[0] > 762.0000000000001) {
        if (input[0] > 4106.500000000001) {
          if (input[0] > 4213.000000000001) {
            if (input[5] > 11.500000000000002) {
              var23 = 0.002958165817060022;
            } else {
              var23 = -0.0019097934731872675;
            }
          } else {
            if (input[4] > 17.500000000000004) {
              var23 = 0.00762882710178019;
            } else {
              if (input[3] > 6.500000000000001) {
                if (input[4] > 8.500000000000002) {
                  var23 = 0.016207853885700958;
                } else {
                  var23 = 0.006805706910779679;
                }
              } else {
                if (input[4] > 4.500000000000001) {
                  if (input[4] > 14.500000000000002) {
                    var23 = 0.008119298400771286;
                  } else {
                    var23 = 0.0339122116388242;
                  }
                } else {
                  var23 = 0.004850039915743702;
                }
              }
            }
          }
        } else {
          var23 = -0.0018582527733447239;
        }
      } else {
        if (input[3] > 6.500000000000001) {
          if (input[3] > 7.500000000000001) {
            if (input[5] > 7.500000000000001) {
              var23 = 0.012707431763968819;
            } else {
              var23 = -0.0010548410004062592;
            }
          } else {
            if (input[5] > 10.500000000000002) {
              var23 = -0.010015202792065756;
            } else {
              if (input[5] > 7.500000000000001) {
                if (input[4] > 10.500000000000002) {
                  var23 = 0.006717350770180163;
                } else {
                  var23 = 0.04870902585814922;
                }
              } else {
                var23 = 0.002921174712047071;
              }
            }
          }
        } else {
          if (input[1] > 17.85000038146973) {
            if (input[1] > 19.064999580383304) {
              var23 = 0.011636831547792366;
            } else {
              var23 = 0.03805967030037816;
            }
          } else {
            if (input[3] > 4.500000000000001) {
              if (input[4] > 18.500000000000004) {
                if (input[5] > 6.500000000000001) {
                  if (input[1] > 13.934999942779543) {
                    var23 = 0.032167891025861824;
                  } else {
                    var23 = 0.00683975746810791;
                  }
                } else {
                  var23 = 0.00036933715404618696;
                }
              } else {
                if (input[4] > 11.500000000000002) {
                  if (input[5] > 11.500000000000002) {
                    var23 = -0.025093300063163043;
                  } else {
                    var23 = 0.0025630707164851895;
                  }
                } else {
                  var23 = 0.008531472418168958;
                }
              }
            } else {
              if (input[4] > 2.5000000000000004) {
                if (input[3] > 3.5000000000000004) {
                  if (input[5] > 9.500000000000002) {
                    if (input[4] > 10.500000000000002) {
                      if (input[4] > 22.500000000000004) {
                        var23 = 0.015478800716488784;
                      } else {
                        var23 = 0.04076043782775135;
                      }
                    } else {
                      var23 = 0.007020042086951435;
                    }
                  } else {
                    var23 = 0.009276805659327472;
                  }
                } else {
                  var23 = 0.0009467716885930193;
                }
              } else {
                var23 = -0.014388891174594926;
              }
            }
          }
        }
      }
    } else {
      var23 = -0.0028116139173397165;
    }
  }
  var var24;
  if (input[0] > 4353.000000000001) {
    if (input[5] > 6.500000000000001) {
      if (input[0] > 4409.000000000001) {
        var24 = -0.0006255380415294382;
      } else {
        var24 = -0.004111506056931774;
      }
    } else {
      var24 = -0.0048378829107299254;
    }
  } else {
    if (input[0] > 348.00000000000006) {
      if (input[0] > 762.0000000000001) {
        if (input[0] > 4106.500000000001) {
          if (input[0] > 4213.000000000001) {
            if (input[0] > 4283.000000000001) {
              if (input[1] > 13.000000000000002) {
                var24 = 0.001462138130559002;
              } else {
                if (input[5] > 7.500000000000001) {
                  if (input[4] > 9.500000000000002) {
                    var24 = 0.004566600712548409;
                  } else {
                    var24 = 0.05553932090927112;
                  }
                } else {
                  var24 = 0.0029334650821383644;
                }
              }
            } else {
              if (input[3] > 7.500000000000001) {
                if (input[1] > 19.175000190734867) {
                  var24 = 0.008799408294459563;
                } else {
                  var24 = -0.0017449211950213686;
                }
              } else {
                var24 = -0.004368652740539262;
              }
            }
          } else {
            if (input[4] > 17.500000000000004) {
              if (input[3] > 7.500000000000001) {
                if (input[5] > 17.500000000000004) {
                  if (input[5] > 19.500000000000004) {
                    var24 = 0.012695070617501775;
                  } else {
                    var24 = 0.06185098186135292;
                  }
                } else {
                  if (input[4] > 29.500000000000004) {
                    var24 = 0.035642982518766075;
                  } else {
                    var24 = 0.005189457689704904;
                  }
                }
              } else {
                if (input[5] > 3.5000000000000004) {
                  var24 = 0.006417904388048766;
                } else {
                  var24 = -0.007351842964551627;
                }
              }
            } else {
              if (input[3] > 6.500000000000001) {
                if (input[4] > 9.500000000000002) {
                  if (input[1] > 16.994999885559086) {
                    if (input[3] > 8.500000000000002) {
                      var24 = 0.028982316022073587;
                    } else {
                      var24 = 0.0031066087318495626;
                    }
                  } else {
                    var24 = 0.02150960457851974;
                  }
                } else {
                  var24 = 0.0066054708847451855;
                }
              } else {
                if (input[4] > 2.5000000000000004) {
                  if (input[4] > 15.500000000000002) {
                    var24 = 0.0020467520303403338;
                  } else {
                    var24 = 0.027201529267655972;
                  }
                } else {
                  var24 = -0.004547398196982927;
                }
              }
            }
          }
        } else {
          if (input[5] > 17.500000000000004) {
            var24 = 0.0020558651904864825;
          } else {
            var24 = -0.0029092808408499155;
          }
        }
      } else {
        if (input[5] > 19.500000000000004) {
          if (input[5] > 22.500000000000004) {
            var24 = 0.0013099974506379417;
          } else {
            if (input[4] > 18.500000000000004) {
              var24 = 0.025408621866085057;
            } else {
              if (input[4] > 15.500000000000002) {
                var24 = -0.012683290243148805;
              } else {
                var24 = 0.013572083103645128;
              }
            }
          }
        } else {
          var24 = 0.00527566810841811;
        }
      }
    } else {
      var24 = -0.002530452516102338;
    }
  }
  var var25;
  if (input[0] > 4353.000000000001) {
    var25 = -0.0024839279084831528;
  } else {
    if (input[0] > 348.00000000000006) {
      if (input[3] > 4.500000000000001) {
        if (input[5] > 10.500000000000002) {
          if (input[1] > 7.875000000000001) {
            if (input[5] > 22.500000000000004) {
              var25 = -0.0035958533428529188;
            } else {
              if (input[1] > 12.81500005722046) {
                if (input[0] > 4106.500000000001) {
                  if (input[0] > 4213.000000000001) {
                    var25 = 0.0022384264641179597;
                  } else {
                    var25 = 0.011250704585036072;
                  }
                } else {
                  if (input[0] > 2554.0000000000005) {
                    if (input[3] > 8.500000000000002) {
                      var25 = -0.013861240016515642;
                    } else {
                      if (input[4] > 3.5000000000000004) {
                        var25 = -0.0017486443622939049;
                      } else {
                        var25 = 0.022978728718589993;
                      }
                    }
                  } else {
                    if (input[3] > 8.500000000000002) {
                      if (input[4] > 5.500000000000001) {
                        var25 = 0.004856074864385717;
                      } else {
                        var25 = 0.031365958994831;
                      }
                    } else {
                      if (input[5] > 18.500000000000004) {
                        if (input[3] > 6.500000000000001) {
                          if (input[1] > 14.074999809265138) {
                            var25 = 0.004358343765299841;
                          } else {
                            var25 = -0.021930072704396612;
                          }
                        } else {
                          var25 = 0.015077284652377582;
                        }
                      } else {
                        if (input[1] > 25.23499965667725) {
                          var25 = 0.012616836807468314;
                        } else {
                          if (input[5] > 11.500000000000002) {
                            var25 = -0.0030111809185343376;
                          } else {
                            var25 = 0.008897987842810021;
                          }
                        }
                      }
                    }
                  }
                }
              } else {
                var25 = 0.012639034542665229;
              }
            }
          } else {
            var25 = 0.039678869041658585;
          }
        } else {
          if (input[0] > 4213.000000000001) {
            var25 = -0.0018680262320611308;
          } else {
            if (input[0] > 4106.500000000001) {
              var25 = 0.007380639562037195;
            } else {
              var25 = -0.0003927541521077073;
            }
          }
        }
      } else {
        if (input[1] > 14.355000019073488) {
          var25 = -0.011115778412669898;
        } else {
          if (input[4] > 2.5000000000000004) {
            if (input[5] > 9.500000000000002) {
              if (input[3] > 3.5000000000000004) {
                if (input[4] > 10.500000000000002) {
                  if (input[4] > 22.500000000000004) {
                    var25 = 0.014514418086641796;
